digraph Tree {
node [shape=box, style="filled, rounded", color="black", fontname=helvetica] ;
edge [fontname=helvetica] ;
0 [label="X[0] <= 0.5\ngini = 0.473\nsamples = 891\nvalue = [549, 342]\nclass = Died", fillcolor="#f5cfb4"] ;
1 [label="X[1] <= 1.5\ngini = 0.306\nsamples = 577\nvalue = [468, 109]\nclass = Died", fillcolor="#eb9e67"] ;
0 -> 1 [labeldistance=2.5, labelangle=45, headlabel="True"] ;
2 [label="X[2] <= 0.5\ngini = 0.466\nsamples = 122\nvalue = [77, 45]\nclass = Died", fillcolor="#f4cbad"] ;
1 -> 2 ;
3 [label="X[3] <= 1.5\ngini = 0.442\nsamples = 88\nvalue = [59, 29]\nclass = Died", fillcolor="#f2bf9a"] ;
2 -> 3 ;
4 [label="X[3] <= 0.5\ngini = 0.436\nsamples = 84\nvalue = [57, 27]\nclass = Died", fillcolor="#f1bd97"] ;
3 -> 4 ;
5 [label="gini = 0.444\nsamples = 75\nvalue = [50, 25]\nclass = Died", fillcolor="#f2c09c"] ;
4 -> 5 ;
6 [label="gini = 0.346\nsamples = 9\nvalue = [7, 2]\nclass = Died", fillcolor="#eca572"] ;
4 -> 6 ;
7 [label="gini = 0.5\nsamples = 4\nvalue = [2, 2]\nclass = Died", fillcolor="#ffffff"] ;
3 -> 7 ;
8 [label="X[2] <= 2.5\ngini = 0.498\nsamples = 34\nvalue = [18, 16]\nclass = Died", fillcolor="#fcf1e9"] ;
2 -> 8 ;
9 [label="X[3] <= 1.5\ngini = 0.5\nsamples = 33\nvalue = [17, 16]\nclass = Died", fillcolor="#fdf8f3"] ;
8 -> 9 ;
10 [label="X[3] <= 0.5\ngini = 0.495\nsamples = 29\nvalue = [16, 13]\nclass = Died", fillcolor="#fae7da"] ;
9 -> 10 ;
11 [label="X[2] <= 1.5\ngini = 0.497\nsamples = 24\nvalue = [13, 11]\nclass = Died", fillcolor="#fbece1"] ;
10 -> 11 ;
12 [label="gini = 0.496\nsamples = 22\nvalue = [12, 10]\nclass = Died", fillcolor="#fbeade"] ;
11 -> 12 ;
13 [label="gini = 0.5\nsamples = 2\nvalue = [1, 1]\nclass = Died", fillcolor="#ffffff"] ;
11 -> 13 ;
14 [label="gini = 0.48\nsamples = 5\nvalue = [3, 2]\nclass = Died", fillcolor="#f6d5bd"] ;
10 -> 14 ;
15 [label="X[3] <= 3.0\ngini = 0.375\nsamples = 4\nvalue = [1, 3]\nclass = Survived", fillcolor="#7bbeee"] ;
9 -> 15 ;
16 [label="gini = 0.0\nsamples = 3\nvalue = [0, 3]\nclass = Survived", fillcolor="#399de5"] ;
15 -> 16 ;
17 [label="gini = 0.0\nsamples = 1\nvalue = [1, 0]\nclass = Died", fillcolor="#e58139"] ;
15 -> 17 ;
18 [label="gini = 0.0\nsamples = 1\nvalue = [1, 0]\nclass = Died", fillcolor="#e58139"] ;
8 -> 18 ;
19 [label="X[3] <= 0.5\ngini = 0.242\nsamples = 455\nvalue = [391, 64]\nclass = Died", fillcolor="#e99659"] ;
1 -> 19 ;
20 [label="X[1] <= 2.5\ngini = 0.202\nsamples = 385\nvalue = [341, 44]\nclass = Died", fillcolor="#e89153"] ;
19 -> 20 ;
21 [label="X[2] <= 1.5\ngini = 0.164\nsamples = 89\nvalue = [81, 8]\nclass = Died", fillcolor="#e88d4d"] ;
20 -> 21 ;
22 [label="X[2] <= 0.5\ngini = 0.169\nsamples = 86\nvalue = [78, 8]\nclass = Died", fillcolor="#e88e4d"] ;
21 -> 22 ;
23 [label="gini = 0.176\nsamples = 72\nvalue = [65, 7]\nclass = Died", fillcolor="#e88f4e"] ;
22 -> 23 ;
24 [label="gini = 0.133\nsamples = 14\nvalue = [13, 1]\nclass = Died", fillcolor="#e78b48"] ;
22 -> 24 ;
25 [label="gini = 0.0\nsamples = 3\nvalue = [3, 0]\nclass = Died", fillcolor="#e58139"] ;
21 -> 25 ;
26 [label="X[2] <= 0.5\ngini = 0.214\nsamples = 296\nvalue = [260, 36]\nclass = Died", fillcolor="#e99254"] ;
20 -> 26 ;
27 [label="gini = 0.213\nsamples = 264\nvalue = [232, 32]\nclass = Died", fillcolor="#e99254"] ;
26 -> 27 ;
28 [label="X[2] <= 1.5\ngini = 0.219\nsamples = 32\nvalue = [28, 4]\nclass = Died", fillcolor="#e99355"] ;
26 -> 28 ;
29 [label="gini = 0.219\nsamples = 24\nvalue = [21, 3]\nclass = Died", fillcolor="#e99355"] ;
28 -> 29 ;
30 [label="gini = 0.219\nsamples = 8\nvalue = [7, 1]\nclass = Died", fillcolor="#e99355"] ;
28 -> 30 ;
31 [label="X[2] <= 2.5\ngini = 0.408\nsamples = 70\nvalue = [50, 20]\nclass = Died", fillcolor="#efb388"] ;
19 -> 31 ;
32 [label="X[3] <= 2.5\ngini = 0.485\nsamples = 46\nvalue = [27, 19]\nclass = Died", fillcolor="#f7dac4"] ;
31 -> 32 ;
33 [label="X[2] <= 0.5\ngini = 0.493\nsamples = 43\nvalue = [24, 19]\nclass = Died", fillcolor="#fae5d6"] ;
32 -> 33 ;
34 [label="X[3] <= 1.5\ngini = 0.5\nsamples = 10\nvalue = [5, 5]\nclass = Died", fillcolor="#ffffff"] ;
33 -> 34 ;
35 [label="X[1] <= 2.5\ngini = 0.48\nsamples = 5\nvalue = [3, 2]\nclass = Died", fillcolor="#f6d5bd"] ;
34 -> 35 ;
36 [label="gini = 0.0\nsamples = 1\nvalue = [1, 0]\nclass = Died", fillcolor="#e58139"] ;
35 -> 36 ;
37 [label="gini = 0.5\nsamples = 4\nvalue = [2, 2]\nclass = Died", fillcolor="#ffffff"] ;
35 -> 37 ;
38 [label="X[1] <= 2.5\ngini = 0.48\nsamples = 5\nvalue = [2, 3]\nclass = Survived", fillcolor="#bddef6"] ;
34 -> 38 ;
39 [label="gini = 0.444\nsamples = 3\nvalue = [1, 2]\nclass = Survived", fillcolor="#9ccef2"] ;
38 -> 39 ;
40 [label="gini = 0.5\nsamples = 2\nvalue = [1, 1]\nclass = Died", fillcolor="#ffffff"] ;
38 -> 40 ;
41 [label="X[3] <= 1.5\ngini = 0.489\nsamples = 33\nvalue = [19, 14]\nclass = Died", fillcolor="#f8decb"] ;
33 -> 41 ;
42 [label="X[1] <= 2.5\ngini = 0.497\nsamples = 28\nvalue = [15, 13]\nclass = Died", fillcolor="#fceee5"] ;
41 -> 42 ;
43 [label="X[2] <= 1.5\ngini = 0.497\nsamples = 13\nvalue = [6, 7]\nclass = Survived", fillcolor="#e3f1fb"] ;
42 -> 43 ;
44 [label="gini = 0.496\nsamples = 11\nvalue = [5, 6]\nclass = Survived", fillcolor="#deeffb"] ;
43 -> 44 ;
45 [label="gini = 0.5\nsamples = 2\nvalue = [1, 1]\nclass = Died", fillcolor="#ffffff"] ;
43 -> 45 ;
46 [label="gini = 0.48\nsamples = 15\nvalue = [9, 6]\nclass = Died", fillcolor="#f6d5bd"] ;
42 -> 46 ;
47 [label="X[1] <= 2.5\ngini = 0.32\nsamples = 5\nvalue = [4, 1]\nclass = Died", fillcolor="#eca06a"] ;
41 -> 47 ;
48 [label="gini = 0.0\nsamples = 2\nvalue = [2, 0]\nclass = Died", fillcolor="#e58139"] ;
47 -> 48 ;
49 [label="gini = 0.444\nsamples = 3\nvalue = [2, 1]\nclass = Died", fillcolor="#f2c09c"] ;
47 -> 49 ;
50 [label="gini = 0.0\nsamples = 3\nvalue = [3, 0]\nclass = Died", fillcolor="#e58139"] ;
32 -> 50 ;
51 [label="X[3] <= 1.5\ngini = 0.08\nsamples = 24\nvalue = [23, 1]\nclass = Died", fillcolor="#e68642"] ;
31 -> 51 ;
52 [label="gini = 0.0\nsamples = 11\nvalue = [11, 0]\nclass = Died", fillcolor="#e58139"] ;
51 -> 52 ;
53 [label="X[2] <= 4.5\ngini = 0.142\nsamples = 13\nvalue = [12, 1]\nclass = Died", fillcolor="#e78c49"] ;
51 -> 53 ;
54 [label="X[2] <= 3.5\ngini = 0.32\nsamples = 5\nvalue = [4, 1]\nclass = Died", fillcolor="#eca06a"] ;
53 -> 54 ;
55 [label="gini = 0.0\nsamples = 2\nvalue = [2, 0]\nclass = Died", fillcolor="#e58139"] ;
54 -> 55 ;
56 [label="gini = 0.444\nsamples = 3\nvalue = [2, 1]\nclass = Died", fillcolor="#f2c09c"] ;
54 -> 56 ;
57 [label="gini = 0.0\nsamples = 8\nvalue = [8, 0]\nclass = Died", fillcolor="#e58139"] ;
53 -> 57 ;
58 [label="X[1] <= 2.5\ngini = 0.383\nsamples = 314\nvalue = [81, 233]\nclass = Survived", fillcolor="#7ebfee"] ;
0 -> 58 [labeldistance=2.5, labelangle=-45, headlabel="False"] ;
59 [label="X[1] <= 1.5\ngini = 0.1\nsamples = 170\nvalue = [9, 161]\nclass = Survived", fillcolor="#44a2e6"] ;
58 -> 59 ;
60 [label="X[3] <= 1.5\ngini = 0.062\nsamples = 94\nvalue = [3, 91]\nclass = Survived", fillcolor="#40a0e6"] ;
59 -> 60 ;
61 [label="X[2] <= 0.5\ngini = 0.024\nsamples = 81\nvalue = [1, 80]\nclass = Survived", fillcolor="#3b9ee5"] ;
60 -> 61 ;
62 [label="X[3] <= 0.5\ngini = 0.044\nsamples = 44\nvalue = [1, 43]\nclass = Survived", fillcolor="#3e9fe6"] ;
61 -> 62 ;
63 [label="gini = 0.057\nsamples = 34\nvalue = [1, 33]\nclass = Survived", fillcolor="#3fa0e6"] ;
62 -> 63 ;
64 [label="gini = 0.0\nsamples = 10\nvalue = [0, 10]\nclass = Survived", fillcolor="#399de5"] ;
62 -> 64 ;
65 [label="gini = 0.0\nsamples = 37\nvalue = [0, 37]\nclass = Survived", fillcolor="#399de5"] ;
61 -> 65 ;
66 [label="X[2] <= 0.5\ngini = 0.26\nsamples = 13\nvalue = [2, 11]\nclass = Survived", fillcolor="#5dafea"] ;
60 -> 66 ;
67 [label="gini = 0.0\nsamples = 5\nvalue = [0, 5]\nclass = Survived", fillcolor="#399de5"] ;
66 -> 67 ;
68 [label="X[2] <= 1.5\ngini = 0.375\nsamples = 8\nvalue = [2, 6]\nclass = Survived", fillcolor="#7bbeee"] ;
66 -> 68 ;
69 [label="gini = 0.5\nsamples = 4\nvalue = [2, 2]\nclass = Died", fillcolor="#ffffff"] ;
68 -> 69 ;
70 [label="gini = 0.0\nsamples = 4\nvalue = [0, 4]\nclass = Survived", fillcolor="#399de5"] ;
68 -> 70 ;
71 [label="X[3] <= 0.5\ngini = 0.145\nsamples = 76\nvalue = [6, 70]\nclass = Survived", fillcolor="#4aa5e7"] ;
59 -> 71 ;
72 [label="X[2] <= 0.5\ngini = 0.198\nsamples = 45\nvalue = [5, 40]\nclass = Survived", fillcolor="#52a9e8"] ;
71 -> 72 ;
73 [label="gini = 0.17\nsamples = 32\nvalue = [3, 29]\nclass = Survived", fillcolor="#4da7e8"] ;
72 -> 73 ;
74 [label="X[2] <= 2.0\ngini = 0.26\nsamples = 13\nvalue = [2, 11]\nclass = Survived", fillcolor="#5dafea"] ;
72 -> 74 ;
75 [label="gini = 0.278\nsamples = 12\nvalue = [2, 10]\nclass = Survived", fillcolor="#61b1ea"] ;
74 -> 75 ;
76 [label="gini = 0.0\nsamples = 1\nvalue = [0, 1]\nclass = Survived", fillcolor="#399de5"] ;
74 -> 76 ;
77 [label="X[3] <= 1.5\ngini = 0.062\nsamples = 31\nvalue = [1, 30]\nclass = Survived", fillcolor="#40a0e6"] ;
71 -> 77 ;
78 [label="X[2] <= 0.5\ngini = 0.105\nsamples = 18\nvalue = [1, 17]\nclass = Survived", fillcolor="#45a3e7"] ;
77 -> 78 ;
79 [label="gini = 0.0\nsamples = 7\nvalue = [0, 7]\nclass = Survived", fillcolor="#399de5"] ;
78 -> 79 ;
80 [label="X[2] <= 1.5\ngini = 0.165\nsamples = 11\nvalue = [1, 10]\nclass = Survived", fillcolor="#4da7e8"] ;
78 -> 80 ;
81 [label="gini = 0.198\nsamples = 9\nvalue = [1, 8]\nclass = Survived", fillcolor="#52a9e8"] ;
80 -> 81 ;
82 [label="gini = 0.0\nsamples = 2\nvalue = [0, 2]\nclass = Survived", fillcolor="#399de5"] ;
80 -> 82 ;
83 [label="gini = 0.0\nsamples = 13\nvalue = [0, 13]\nclass = Survived", fillcolor="#399de5"] ;
77 -> 83 ;
84 [label="X[2] <= 2.5\ngini = 0.5\nsamples = 144\nvalue = [72, 72]\nclass = Died", fillcolor="#ffffff"] ;
58 -> 84 ;
85 [label="X[3] <= 3.5\ngini = 0.495\nsamples = 126\nvalue = [57, 69]\nclass = Survived", fillcolor="#ddeefa"] ;
84 -> 85 ;
86 [label="X[2] <= 0.5\ngini = 0.49\nsamples = 119\nvalue = [51, 68]\nclass = Survived", fillcolor="#cee6f8"] ;
85 -> 86 ;
87 [label="X[3] <= 2.5\ngini = 0.473\nsamples = 78\nvalue = [30, 48]\nclass = Survived", fillcolor="#b5daf5"] ;
86 -> 87 ;
88 [label="X[3] <= 0.5\ngini = 0.476\nsamples = 77\nvalue = [30, 47]\nclass = Survived", fillcolor="#b7dcf6"] ;
87 -> 88 ;
89 [label="gini = 0.473\nsamples = 60\nvalue = [23, 37]\nclass = Survived", fillcolor="#b4daf5"] ;
88 -> 89 ;
90 [label="X[3] <= 1.5\ngini = 0.484\nsamples = 17\nvalue = [7, 10]\nclass = Survived", fillcolor="#c4e2f7"] ;
88 -> 90 ;
91 [label="gini = 0.49\nsamples = 7\nvalue = [3, 4]\nclass = Survived", fillcolor="#cee6f8"] ;
90 -> 91 ;
92 [label="gini = 0.48\nsamples = 10\nvalue = [4, 6]\nclass = Survived", fillcolor="#bddef6"] ;
90 -> 92 ;
93 [label="gini = 0.0\nsamples = 1\nvalue = [0, 1]\nclass = Survived", fillcolor="#399de5"] ;
87 -> 93 ;
94 [label="X[3] <= 1.5\ngini = 0.5\nsamples = 41\nvalue = [21, 20]\nclass = Died", fillcolor="#fef9f6"] ;
86 -> 94 ;
95 [label="X[2] <= 1.5\ngini = 0.497\nsamples = 37\nvalue = [17, 20]\nclass = Survived", fillcolor="#e1f0fb"] ;
94 -> 95 ;
96 [label="X[3] <= 0.5\ngini = 0.5\nsamples = 32\nvalue = [16, 16]\nclass = Died", fillcolor="#ffffff"] ;
95 -> 96 ;
97 [label="gini = 0.5\nsamples = 22\nvalue = [11, 11]\nclass = Died", fillcolor="#ffffff"] ;
96 -> 97 ;
98 [label="gini = 0.5\nsamples = 10\nvalue = [5, 5]\nclass = Died", fillcolor="#ffffff"] ;
96 -> 98 ;
99 [label="X[3] <= 0.5\ngini = 0.32\nsamples = 5\nvalue = [1, 4]\nclass = Survived", fillcolor="#6ab6ec"] ;
95 -> 99 ;
100 [label="gini = 0.5\nsamples = 2\nvalue = [1, 1]\nclass = Died", fillcolor="#ffffff"] ;
99 -> 100 ;
101 [label="gini = 0.0\nsamples = 3\nvalue = [0, 3]\nclass = Survived", fillcolor="#399de5"] ;
99 -> 101 ;
102 [label="gini = 0.0\nsamples = 4\nvalue = [4, 0]\nclass = Died", fillcolor="#e58139"] ;
94 -> 102 ;
103 [label="X[2] <= 0.5\ngini = 0.245\nsamples = 7\nvalue = [6, 1]\nclass = Died", fillcolor="#e9965a"] ;
85 -> 103 ;
104 [label="gini = 0.0\nsamples = 3\nvalue = [3, 0]\nclass = Died", fillcolor="#e58139"] ;
103 -> 104 ;
105 [label="X[3] <= 4.5\ngini = 0.375\nsamples = 4\nvalue = [3, 1]\nclass = Died", fillcolor="#eeab7b"] ;
103 -> 105 ;
106 [label="gini = 0.0\nsamples = 1\nvalue = [1, 0]\nclass = Died", fillcolor="#e58139"] ;
105 -> 106 ;
107 [label="X[3] <= 5.5\ngini = 0.444\nsamples = 3\nvalue = [2, 1]\nclass = Died", fillcolor="#f2c09c"] ;
105 -> 107 ;
108 [label="gini = 0.5\nsamples = 2\nvalue = [1, 1]\nclass = Died", fillcolor="#ffffff"] ;
107 -> 108 ;
109 [label="gini = 0.0\nsamples = 1\nvalue = [1, 0]\nclass = Died", fillcolor="#e58139"] ;
107 -> 109 ;
110 [label="X[3] <= 0.5\ngini = 0.278\nsamples = 18\nvalue = [15, 3]\nclass = Died", fillcolor="#ea9a61"] ;
84 -> 110 ;
111 [label="gini = 0.0\nsamples = 1\nvalue = [0, 1]\nclass = Survived", fillcolor="#399de5"] ;
110 -> 111 ;
112 [label="X[2] <= 3.5\ngini = 0.208\nsamples = 17\nvalue = [15, 2]\nclass = Died", fillcolor="#e89253"] ;
110 -> 112 ;
113 [label="gini = 0.0\nsamples = 7\nvalue = [7, 0]\nclass = Died", fillcolor="#e58139"] ;
112 -> 113 ;
114 [label="X[2] <= 4.5\ngini = 0.32\nsamples = 10\nvalue = [8, 2]\nclass = Died", fillcolor="#eca06a"] ;
112 -> 114 ;
115 [label="gini = 0.444\nsamples = 6\nvalue = [4, 2]\nclass = Died", fillcolor="#f2c09c"] ;
114 -> 115 ;
116 [label="gini = 0.0\nsamples = 4\nvalue = [4, 0]\nclass = Died", fillcolor="#e58139"] ;
114 -> 116 ;
}